//Numpy array shape [64, 32]
//Min -1.676595449448
//Max 0.929091215134
//Number of zeros 1536

#ifndef W5_H_
#define W5_H_

#ifndef __SYNTHESIS__
model_default_t w5[2048];
#else
model_default_t w5[2048] = {-0.0000000000, -0.0000000000, -0.0004260243, 0.0000000000, -0.0000000000, -0.0000000000, 0.0000000000, 0.0000000000, 0.0000000000, 0.0000000000, -0.0000000000, -0.0000000000, 0.1946762204, -0.2778162658, -0.0000000000, 0.0000000000, -0.0000000000, 0.0000000000, -0.0000000000, -0.0000000000, 0.0000000000, -0.0000000000, -0.0169560332, 0.0000000000, 0.0000000000, -0.0000000000, 0.0000000000, -0.0000000000, -0.0068736523, -0.0000000000, -0.0000000000, -0.0000000000, 0.2617869675, -0.0344620645, -0.1428532600, -0.1294662356, 0.0000000000, 0.0039269812, -0.0000000000, 0.0000000000, 0.0000000000, 0.0583788194, -0.0000000000, -0.0000000000, 0.3396356404, -0.0000000000, 0.0000000000, -0.0662239864, 0.0000000000, 0.0614644587, -0.0000000000, -0.0000000000, -0.0676153898, -0.0000000000, 0.0000000000, -0.0000000000, 0.0000000000, 0.0642160326, -0.3648537993, -0.0000000000, -0.5764534473, 0.0000000000, 0.0000000000, -0.0000000000, 0.0032096214, -0.0000000000, 0.0000000000, 0.0592145063, 0.0000000000, -0.0000000000, 0.7488576770, 0.0000000000, 0.4793442786, 0.0000000000, -0.0000000000, -0.1417472363, -0.0050704447, 0.0000000000, -0.0000000000, 0.7277683020, -0.0000000000, -0.0000000000, 0.0971090198, 0.0150533179, 0.4274542928, 0.1877824813, -0.5655431747, 0.0000000000, 0.0000000000, 0.1474617869, 0.0323745571, -0.4934968054, 0.0000000000, 0.0000000000, -0.0000000000, -0.0000000000, -0.0000000000, -0.0000000000, 0.1402875185, 0.0107777817, 0.0000000000, 0.0000000000, -0.0000000000, 0.0000000000, -0.0000000000, 0.0000000000, -0.0000000000, 0.0000000000, 0.0000000000, 0.0000000000, 0.0000000000, -0.0000000000, 0.0000000000, -0.0000000000, -0.0000000000, -0.0000000000, -0.0000000000, -0.0000000000, 0.0000000000, -0.0000000000, 0.0000000000, 0.1488653272, 0.0000000000, 0.0000000000, -0.0000000000, 0.0000000000, 0.0000000000, -0.0000000000, -0.0000000000, -0.0000000000, 0.0023703428, 0.0000000000, 0.2583033741, 0.0000000000, -0.0000000000, 0.0000000000, -0.0000000000, 0.0000000000, -0.0000000000, 0.0000000000, 0.0000000000, 0.0000000000, -0.0000000000, -0.0004921473, 0.0000000000, -0.0000000000, -0.0000000000, -0.0000000000, -0.0000000000, 0.0114160161, 0.2295232713, -0.0000000000, 0.0000000000, 0.0000000000, 0.0000000000, -0.0000000000, -0.0000000000, -0.0000000000, 0.0000000000, -0.0000000000, -0.0000000000, -0.0000000000, 0.0000000000, -0.5548013449, 0.0000000000, -0.0000000000, -0.0000000000, 0.0000000000, 0.0482208803, 0.0000000000, -0.0000000000, 0.0000000000, 0.4416157305, 0.0180026777, -0.0000000000, 0.0000000000, 0.0000000000, -0.0000000000, 0.0000000000, -0.0000000000, -0.0000000000, -0.0000000000, 0.0000000000, -0.0000000000, 0.0000000000, 0.3447832763, -0.3182876110, 0.2949735522, -0.4593653679, 0.0000000000, 0.0000000000, -0.0000000000, -0.0000000000, -0.0000000000, 0.1345639080, -0.4147216976, 0.0000000000, -0.0000000000, -0.0000000000, 0.2576622069, 0.0000000000, -0.4267808199, 0.2243770361, 0.0000000000, 0.0000000000, 0.3501872718, -0.0077523328, 0.0000000000, 0.0000000000, 0.2542899549, -0.2939564288, -0.0000000000, -0.1201639473, 0.1229384840, 0.1651504040, -0.0000000000, 0.0000000000, 0.1632963270, -0.8908218145, 0.0000000000, -0.0000000000, 0.0000000000, 0.0000000000, -0.0000000000, -0.0000000000, -0.0000000000, 0.0000000000, 0.1732469052, 0.0000000000, -0.0000000000, 0.0000000000, 0.0000000000, 0.0000000000, 0.0000000000, -0.0000000000, -0.0000000000, 0.1552855819, 0.0000000000, 0.0040756604, 0.0947743878, -0.0554193407, 0.0000000000, -0.2990965545, -0.0000000000, 0.0000000000, -0.0603106283, -0.0000000000, 0.0000000000, -0.6907647848, -0.2800188363, 0.2903886437, 0.0000000000, 0.2253293395, 0.0000000000, 0.1024672538, 0.2875687182, 0.0000000000, -0.0000000000, -0.0000000000, 0.0000000000, -0.0000000000, -0.0000000000, 0.0000000000, -0.0011324917, 0.0000000000, -0.0000000000, -0.0000000000, 0.0549087636, 0.0488378480, 0.0249904059, -0.0000000000, 0.0000000000, -0.0000000000, 0.0000000000, -0.3951534033, -0.0000000000, 0.0000000000, -0.4234314561, 0.0049847043, 0.0000000000, 0.0000000000, -0.0000000000, -0.0380995683, 0.0000000000, -0.2043527961, -0.0000000000, 0.0371219628, -0.0000000000, -0.0000000000, -0.2972289920, 0.0000000000, 0.2831067145, 0.0000000000, -0.0000000000, -0.1911905408, 0.0755816475, 0.0000000000, 0.0000000000, -0.0167202577, -0.0000000000, 0.0000000000, 0.0000000000, -0.0000000000, -0.2633639276, 0.0000000000, 0.0000000000, -0.0000000000, -0.0000000000, -0.3073259294, 0.0855214596, 0.0000000000, 0.0000000000, 0.0000000000, 0.0000000000, -0.0000000000, 0.4972546101, 0.0000000000, -0.0000000000, 0.0981831402, -0.0000000000, -0.0000000000, -0.0000000000, 0.0000000000, -0.0373865627, 0.0000000000, -0.0000000000, -0.0000000000, 0.0000000000, 0.0000000000, -0.4169067442, -0.0000000000, -0.1025735140, 0.0000000000, 0.3201831281, -0.0000000000, 0.0000000000, 0.0000000000, 0.0000000000, -0.1559225321, -0.0000000000, -0.0000000000, -0.0463986807, 0.0000000000, -0.0000000000, -0.1344637126, -0.0096985474, -0.2575940788, 0.0000000000, -0.0000000000, 0.0000000000, 0.1064741910, -0.0000000000, -0.0000000000, -0.0000000000, 0.0000000000, 0.2313496768, -0.0000000000, -0.0000000000, -0.0000000000, 0.0000000000, 0.0000000000, 0.0000000000, -0.0000000000, -0.0000000000, -0.4052923322, 0.0000000000, -0.0000000000, 0.0000000000, -0.0000000000, 0.0000000000, -0.0000000000, -0.0000000000, 0.1561670899, 0.0019939169, -0.0000000000, 0.0000000000, 0.0000000000, -0.1666308343, 0.1459106058, 0.0000000000, 0.0000000000, -0.0000000000, -0.0000000000, 0.1690590978, -0.2429224104, -0.6619817615, 0.0000000000, 0.0000000000, 0.0000000000, -0.0000000000, -0.0000000000, -0.0527237728, 0.0000000000, 0.5461500883, -0.0000000000, -0.0000000000, 0.2804412842, 0.0000000000, -0.0000000000, 0.0000000000, -0.0000000000, 0.3292895555, -0.0000000000, -0.0000000000, 0.0000000000, -0.0000000000, 0.2131142765, 0.0000000000, 0.0024338518, 0.4575235546, 0.0000000000, -0.0663825795, -0.6810451746, -0.0000000000, -0.0000000000, -0.8856902719, 0.2042453885, -0.0000000000, 0.0000000000, 0.0000000000, 0.0000000000, -0.0000000000, -0.0000000000, 0.0000000000, 0.0000000000, 0.0000000000, 0.0877893046, 0.0000000000, -0.1901724041, 0.0000000000, -0.0000000000, 0.0000000000, 0.0000000000, 0.0000000000, -0.0313234627, -0.0000000000, 0.4810801446, -0.0000000000, 0.0000000000, 0.0057669347, 0.0000000000, 0.0000000000, 0.0000000000, -0.3360260427, -0.0000000000, -0.0000000000, 0.0000000000, 0.0000000000, -0.0000000000, 0.1973224729, 0.0000000000, 0.2090791017, 0.0000000000, -0.0000000000, -0.0000000000, 0.0000000000, 0.1351373494, 0.0000000000, -0.0000000000, -0.0000000000, -0.3323710561, 0.0000000000, -0.0000000000, 0.3631739020, -0.0000000000, -0.0000000000, -0.0000000000, -0.0000000000, 0.0000000000, 0.2132290751, -0.0000000000, 0.0000000000, 0.0000000000, -0.2370072305, 0.0000000000, -0.0000000000, 0.3560000062, -0.0000000000, -0.0000000000, 0.2433630824, 0.0000000000, -0.0000000000, -1.1503987312, 0.0000000000, -0.1375433654, -0.0378348939, 0.0000000000, 0.0019238720, -0.0779256895, -0.0000000000, -0.0000000000, -0.0000000000, 0.0000000000, 0.1605664045, -0.0000000000, 0.0000000000, -0.0000000000, 0.0000000000, -0.2983488142, -0.0000000000, 0.3704799414, -1.5099072456, -0.0000000000, 0.0000000000, -0.0000000000, 0.3415654004, -0.3566643596, -0.0000000000, 0.0000000000, -0.0000000000, -0.0000000000, -0.1188947186, -0.0000000000, -0.0000000000, 0.1159764379, 0.0000000000, 0.0000000000, -0.0000000000, -0.0014422467, -0.0032293743, 0.0000000000, 0.0000000000, -0.2223659307, -0.1175075248, 0.0000000000, 0.0000000000, -0.0000000000, -0.0000000000, 0.0000000000, -0.0000000000, -0.0000000000, -0.0000000000, 0.0428015366, 0.0334510989, -0.0704684258, 0.1968280375, 0.0000000000, -0.2130579352, 0.1956765950, 0.0000000000, 0.0000000000, 0.0000000000, 0.0000000000, 0.0136996917, -0.0000000000, -0.0000000000, -0.0019548093, -0.1457624584, 0.0000000000, -0.0000000000, 0.1800592393, 0.0000000000, 0.0000000000, 0.0085581038, -0.0000000000, -0.0000000000, 0.0000000000, 0.0000000000, -0.0000000000, -0.0705940723, 0.0000000000, -0.0018285444, 0.0000000000, 0.0202329718, 0.0000000000, 0.1167781577, 0.1300138533, 0.0228458550, 0.0000000000, -0.0000000000, -0.0000000000, 0.1789605170, -0.0362387002, -0.0000000000, 0.0000000000, -0.0000000000, -0.0000000000, -0.0832446367, 0.1199835837, 0.0000000000, -0.0382936224, -0.0000000000, -0.0000000000, 0.0000000000, 0.2041671276, 0.0000000000, -0.0000000000, -0.0000000000, 0.4844918251, 0.0000000000, -0.0000000000, 0.1894723177, -0.0000000000, 0.1308197677, 0.0000000000, -0.0000000000, 0.0000000000, -0.0000000000, 0.3255435824, 0.0075627742, -0.0616797879, 0.2527835667, -0.1508331597, 0.2704730630, 0.0000000000, 0.0000000000, -0.0000000000, -0.0000000000, 0.6595370770, 0.3154338598, 0.0000000000, 0.0000000000, 0.0000000000, -0.0000000000, -0.0000000000, 0.0000000000, -0.0218254942, 0.0000000000, -0.0000000000, 0.0022872619, -0.1138936728, 0.0000000000, -0.0000000000, -0.0000000000, 0.0000000000, 0.0000000000, 0.0000000000, -0.0000000000, -0.0000000000, 0.0137144327, -0.3891447783, -0.0000000000, 0.0000000000, 0.0000000000, 0.0000000000, 0.0000000000, -0.0058569750, 0.0000000000, 0.0000000000, 0.2063543499, -0.0000000000, -0.0425964184, 0.0000000000, 0.0000000000, 0.0000000000, -0.0000000000, -0.0000000000, 0.0000000000, 0.0088453675, 0.0000000000, -0.0000000000, -0.0000000000, 0.4618997574, 0.0000000000, -0.0000000000, 0.0000000000, 0.0000000000, 0.0000000000, -0.0000000000, -0.0000000000, 0.0000000000, 0.0002743181, 0.0000000000, 0.0000000000, 0.0000000000, -0.0000000000, -0.0000000000, -0.0000000000, -0.0000000000, -0.0000000000, 0.0000000000, -0.0000000000, 0.1886178702, -0.0000000000, 0.1557029486, 0.0000000000, 0.1483391523, 0.1313340366, -0.0000000000, 0.2600667179, -0.0000000000, -0.0504641533, -0.0000000000, 0.3851657212, 0.0000000000, 0.0000000000, 0.0000000000, -0.0000000000, 0.0000000000, 0.1158925071, -0.0000000000, -0.0000000000, 0.0070797415, -0.0000000000, 0.0000000000, -0.0000000000, 0.0000000000, 0.0000000000, 0.0000000000, 0.0000000000, -0.0000000000, 0.0000000000, 0.0000000000, -0.0000000000, -0.0000000000, 0.2553695440, -0.2028385997, 0.0000000000, -0.0000000000, -0.0000000000, 0.0000000000, 0.0000000000, 0.0000000000, 0.0000000000, 0.0284816381, -0.0000000000, 0.0000000000, 0.0000000000, -0.0000000000, 0.0000000000, -0.0000000000, -0.0000000000, -0.0000000000, -0.0000000000, 0.0000000000, -0.2333057076, -0.0000000000, 0.0000000000, -0.0854969621, -0.0000000000, -0.0000000000, 0.0000000000, 0.0000000000, -0.0000000000, -0.0000000000, -0.0000000000, 0.0000000000, -0.0000000000, -0.0000000000, 0.0000000000, -0.0000000000, -0.0000000000, 0.0000000000, -0.0000000000, 0.0000000000, -0.0000000000, -0.0000000000, -0.0000000000, 0.0000000000, -0.0000000000, -0.0000000000, -0.0000000000, -0.0000000000, 0.0000000000, 0.0000000000, -0.1559647769, 0.0000000000, 0.0000000000, -0.0000000000, 0.0000000000, -0.0000000000, -0.0000000000, -0.0000000000, 0.0000000000, 0.1282475442, -0.0000000000, -0.0000000000, -0.0000000000, -0.0000000000, 0.2582067549, 0.2029167265, 0.0000000000, 0.0000000000, -0.0000000000, -0.0000000000, 0.0215930436, -0.0000000000, 0.0117872525, -0.0000000000, 0.0000000000, -0.4417299330, 0.0000000000, -0.0000000000, 0.2477094382, 0.0000000000, -0.0000000000, 0.0000000000, -0.0000000000, -0.0006041154, 0.2486348152, 0.0000000000, -0.0000000000, 0.0000000000, 0.0000000000, 0.0000000000, 0.0000000000, 0.3763179481, 0.0000000000, 0.0000000000, -0.0000000000, -0.0000000000, -0.0577450655, 0.0000000000, 0.0000000000, 0.2485948205, -0.0000000000, -0.0000000000, 0.0000000000, 0.0000000000, 0.0000000000, 0.0859235600, 0.0016602009, 0.0000000000, -0.0763309523, -0.0000000000, 0.0000000000, 0.0000000000, 0.1711004376, 0.3471295536, -0.0000000000, -0.0000000000, 0.3281506002, 0.0000000000, -0.0000000000, 0.0000000000, 0.0000000000, 0.0000000000, 0.0396673903, -0.0000000000, -0.0000000000, 0.0000000000, 0.0070185466, -0.0000000000, -0.0000000000, 0.0000000000, -0.0856980830, 0.0000000000, -0.0000000000, -0.0000000000, 0.0000000000, -0.0000000000, 0.0000000000, 0.3228499293, 0.0592651144, 0.0000000000, 0.0000000000, 0.0000000000, 0.0000000000, 0.0000000000, -0.0000000000, 0.2412333488, -0.0000000000, -0.0000000000, 0.3179318011, 0.0000000000, -0.0000000000, 0.2034514248, 0.0000000000, -0.1593223959, 0.0000000000, -0.3758131266, 0.0000000000, 0.0000000000, -0.0000000000, -0.0000000000, 0.0000000000, 0.0000000000, 0.0000000000, 0.0000000000, -0.0000000000, 0.0000000000, 0.0000000000, 0.0000000000, 0.0000000000, -0.0000000000, -0.0000000000, 0.0000000000, -0.1371589601, -0.0000000000, -0.0000000000, -0.0000000000, -0.0000000000, -0.0000000000, -0.0000000000, 0.0000000000, -0.0000000000, -0.0000000000, 0.0000000000, 0.0000000000, -0.0000000000, 0.1165501550, 0.0000000000, 0.0000000000, -0.0000000000, 0.0000000000, 0.0000000000, -0.0000000000, -0.0000000000, 0.0000000000, 0.0000000000, 0.0000000000, -0.0000000000, -0.0000000000, 0.0000000000, -0.0000000000, 0.0000000000, -0.0000000000, -0.0000000000, 0.0000000000, 0.0000000000, -0.0000000000, 0.0000000000, 0.0000000000, -0.0000000000, 0.0000000000, -0.0000000000, 0.0000000000, 0.0000000000, 0.0000000000, 0.0000000000, 0.0000000000, -0.3618352711, -0.0000000000, 0.0000000000, 0.2430618554, -0.0000000000, 0.0000000000, 0.0335187986, -0.0000000000, 0.0000000000, 0.0000000000, 0.0210966598, 0.0000000000, -0.0000000000, -0.0000000000, 0.0000000000, 0.3925254643, 0.0000000000, -0.0000000000, -0.0000000000, 0.0000000000, 0.0000000000, -0.0000000000, 0.0000000000, -0.0000000000, -0.0000000000, 0.1532993913, 0.3030098677, -0.0582377799, 0.0200173538, -0.0000000000, 0.2069823295, 0.9290912151, -0.0000000000, 0.0000000000, -0.0000000000, 0.0000000000, -0.0000000000, -0.0000000000, 0.0736820474, -0.0000000000, -0.0000000000, 0.0000000000, -0.3375168741, 0.0000000000, -0.0000000000, 0.1846376210, 0.0000000000, -0.0701332018, 0.0000000000, 0.2320980132, 0.0000000000, 0.1679109335, 0.2034787983, -0.0000000000, 0.0000000000, 0.0000000000, -0.0000000000, -0.0000000000, -0.0000000000, -0.0000000000, -0.0000000000, 0.0000000000, -0.0000000000, 0.0000000000, 0.2245917767, -0.6314814091, 0.0000000000, -0.1271153986, 0.0000000000, 0.0726540312, -0.0000000000, -0.1246638373, -0.0000000000, 0.0000000000, 0.0000000000, 0.0016164054, -0.0000000000, 0.0416180231, -0.3697114885, 0.0000000000, 0.0000000000, -0.0000000000, -0.0000000000, 0.0000000000, 0.0000000000, -0.0000000000, 0.0000000000, -0.0000000000, -0.0000000000, -0.0000000000, -0.0000000000, -0.1316918135, -0.0000000000, -0.1325657517, 0.0968474522, -0.1386270970, -0.0000000000, 0.0000000000, -0.0000000000, 0.2274670005, -0.0000000000, -0.0000000000, 0.0000000000, -0.0000000000, -0.0000000000, 0.0000000000, 0.0000000000, 0.0000000000, -0.0000000000, 0.0000000000, 0.0000000000, 0.0000000000, -0.0000000000, -0.0000000000, -0.0000000000, 0.1475916952, 0.0000000000, -0.0000000000, -0.0000000000, -0.0000000000, 0.0000000000, -0.0000000000, -0.0000000000, 0.0000000000, -0.0000000000, 0.0000000000, 0.0000000000, 0.0000000000, -0.0000000000, 0.0000000000, 0.0000000000, 0.0000000000, -0.0000000000, -0.0000000000, -0.0000000000, -0.0000000000, -0.0000000000, 0.2776486576, 0.1546492577, -0.0087679150, -0.0000000000, -0.0000000000, 0.0000000000, 0.0000000000, -0.0443112776, -0.0000000000, 0.0000000000, 0.0000000000, 0.2683608532, -0.0859801099, 0.0000000000, -0.1480239779, 0.0000000000, -0.0000000000, -0.4282608628, -0.0000000000, -0.0000000000, -0.0457282215, 0.5655120611, 0.0000000000, -0.4356859624, 0.0000000000, -0.2531481981, -0.0000000000, -0.0000000000, 0.0000000000, 0.3468888998, 0.0000000000, 0.0000000000, -0.0000000000, 0.0000000000, -0.0000000000, 0.0000000000, -0.0000000000, 0.0000000000, -0.0000000000, 0.0000000000, 0.0000000000, 0.0000000000, -0.0000000000, 0.0000000000, 0.0000000000, 0.0000000000, 0.0000000000, -0.0000000000, -0.0000000000, -0.0000000000, 0.0000000000, -0.0000000000, -0.0000000000, -0.0000000000, -0.0000000000, -0.0000000000, 0.0000000000, -0.0000000000, -0.0000000000, 0.0000000000, -0.0000000000, 0.0000000000, -0.0000000000, -0.0000000000, 0.0000000000, 0.0000000000, 0.0000000000, -0.0000000000, -0.0000000000, 0.0000000000, 0.0000000000, 0.0000000000, -0.0000000000, -0.0000000000, 0.0000000000, 0.0000000000, -0.0000000000, 0.0000000000, -0.0000000000, -0.0000000000, -0.0000000000, -0.0000000000, 0.0000000000, -0.0000000000, 0.0000000000, 0.0000000000, 0.0000000000, -0.0000000000, 0.0000000000, 0.0000000000, -0.0000000000, -0.0000000000, 0.0000000000, -0.0000000000, -0.0000000000, -0.0000000000, 0.0000000000, -0.2844469547, 0.0000000000, -0.0000000000, -0.0000000000, 0.0000000000, 0.0881280378, -0.0189627819, -0.0000000000, 0.0000000000, 0.4056541026, 0.0205026269, -0.0001441510, 0.0000000000, 0.0000000000, 0.0000000000, -0.0000000000, -0.0000000000, -0.0000000000, 0.0110711223, 0.1388475001, -0.0000000000, 0.0000000000, 0.0000000000, -0.3130382001, 0.0000000000, -0.0158586800, 0.0000000000, 0.1836418957, -0.1834528148, 0.0000000000, -0.0000000000, 0.0000000000, 0.0000000000, -0.0000000000, -0.0000000000, 0.0000000000, 0.0009104773, 0.0000000000, -0.0000000000, -0.0000000000, 0.0171290524, 0.1192391217, -0.0000000000, -0.0000000000, -0.0000000000, -0.0000000000, 0.0000000000, 0.0000000000, -0.0000000000, 0.1420916468, 0.0000000000, 0.1872439682, 0.0000000000, -0.0000000000, -0.0000000000, -0.0000000000, -0.0717552677, -0.1995998174, -0.0000000000, -0.0000000000, -0.0087083513, -0.0000000000, -0.0000000000, 0.0000000000, 0.0000000000, 0.0000000000, -0.0000000000, 0.0304608382, 0.0000000000, 0.0000000000, 0.0000000000, -0.0000000000, -0.0000000000, 0.0000000000, 0.0000000000, -0.0000000000, 0.0000000000, -0.0000000000, -0.0000000000, -0.0000000000, -0.0000000000, 0.0000000000, -0.0000000000, 0.1119341552, 0.0000000000, -0.2587103844, -0.1776023954, 0.3541808128, -0.0000000000, 0.3274789751, -0.0000000000, -0.0000000000, -0.0000000000, -0.0000000000, 0.3154038191, 0.0000000000, 0.0000000000, 0.0000000000, 0.0000000000, 0.0000000000, 0.0000000000, 0.0554069765, 0.0000000000, -0.0583577491, 0.6432860494, 0.0000000000, -0.2139704973, 0.0025543778, -0.0000000000, -0.0000000000, -0.0082926294, -0.0000000000, -0.0000000000, -0.0000000000, -0.0000000000, 0.0000000000, 0.0000000000, 0.0000000000, 0.0000000000, 0.0000000000, 0.0000000000, 0.0000000000, 0.0000000000, -0.0000000000, 0.0483653247, -0.0000000000, -0.0000000000, 0.0706866384, 0.0000000000, 0.5367339253, -0.0000000000, -0.0000000000, 0.0000000000, 0.0000000000, 0.0000000000, -0.0000000000, -0.0000000000, 0.0000000000, 0.0000000000, -0.0000000000, 0.0000000000, 0.0000000000, 0.0000000000, 0.0594754033, -0.0000000000, 0.0000000000, -0.0000000000, 0.2077788264, 0.0000000000, 0.0000000000, 0.0958457813, 0.0000000000, 0.0000000000, 0.0000000000, -0.0000000000, 0.0000000000, 0.0034943786, -0.0000000000, -0.0000000000, 0.1801908612, 0.0000000000, 0.0000000000, -0.0002754357, -0.0000000000, 0.0000000000, -0.2041454315, -1.1181795597, -0.0000000000, 0.0000000000, -0.2441891581, 0.3205272853, -0.0000000000, -0.0000000000, 0.0000000000, 0.0000000000, -1.6765954494, -1.1693122387, -0.0526675805, -1.0176429749, 0.1382993013, -0.3086672127, 0.0000000000, -0.3401189148, 0.0000000000, 0.0000000000, 0.1472887099, 0.0000000000, 0.0000000000, -0.0000000000, -0.0000000000, -0.0000000000, 0.2926884890, 0.0000000000, 0.0000000000, -0.0000000000, -0.0000000000, 0.0000000000, 0.0000000000, 0.0000000000, -0.0000000000, -0.2417944223, 0.0000000000, 0.1821336448, -0.0000000000, 0.0572956242, -0.1476625800, 0.0000000000, -0.0000000000, -0.0000000000, -0.0000000000, 0.2628462613, 0.0000000000, -0.0000000000, 0.0000000000, -0.0175097156, 0.0000000000, -0.0000000000, -0.0000000000, -0.0000000000, 0.0000000000, -0.0000000000, -0.0000000000, 0.0128875505, -0.1143422276, -0.1050306037, -0.0000000000, -0.0000000000, 0.2038664371, 0.0000000000, 0.2886615694, 0.0000000000, -0.0000000000, -0.0000000000, 0.3918802142, 0.0000000000, -0.0000000000, 0.0000000000, 0.0613660403, -0.0000000000, -0.0000000000, 0.0293455590, 0.0000000000, -0.3179723918, -0.0000000000, 0.2074597031, 0.0000000000, -0.0000000000, 0.0000000000, 0.0000000000, 0.0000000000, -0.0000000000, -0.0000000000, -0.1421500295, 0.5021139383, -0.0000000000, -0.1897769123, -0.3863585889, 0.0000000000, -0.0000000000, -0.0000000000, 0.0000000000, -0.0000000000, 0.1332144886, 0.4723572731, -0.0668499544, -0.0378126167, 0.0000000000, -0.0000000000, 0.0000000000, 0.0000000000, -0.0000000000, 0.1146620438, 0.3717235029, -0.0000000000, 0.2374546975, 0.0000000000, -0.0000000000, 0.0000000000, 0.0000000000, 0.0000000000, 0.0000000000, -0.0000000000, 0.0000000000, 0.0000000000, -0.0000000000, -0.0000000000, -0.0000000000, 0.0000000000, 0.0000000000, 0.0000000000, -0.0000000000, -0.0000000000, 0.0000000000, 0.0000000000, 0.0000000000, -0.0000000000, -0.0000000000, 0.0000000000, 0.0000000000, -0.0000000000, 0.0000000000, -0.0000000000, -0.0000000000, -0.0000000000, -0.0000000000, 0.0000000000, -0.0000000000, 0.0000000000, 0.0000000000, 0.0000000000, -0.0000000000, 0.0000000000, 0.0000000000, -0.0000000000, 0.0000000000, 0.0000000000, -0.0000000000, -0.0000000000, -0.0000000000, 0.0000000000, -0.2958654761, 0.0000000000, -0.0000000000, -0.0000000000, 0.0000000000, 0.0000000000, 0.0000000000, -0.0000000000, 0.0000000000, 0.0000000000, 0.0915501341, 0.0000000000, 0.0000000000, 0.0000000000, 0.2424785644, -0.0000000000, 0.4507006109, -0.0000000000, -0.0000000000, 0.0000000000, -0.0000000000, 0.4010579586, 0.0000000000, -0.3587899506, -0.0000000000, -0.0000000000, 0.0000000000, 0.0000000000, -0.1973021626, -0.0000000000, -0.0000000000, 0.0000000000, 0.0000000000, 0.0000000000, -0.0000000000, -0.0016277585, -0.0147278411, 0.0000000000, 0.0000000000, -0.0000000000, -0.0000000000, -0.2051424980, -0.3814429939, 0.1072703600, 0.0000000000, -0.0000000000, -0.0000000000, 0.0000000000, -0.0000000000, -0.2649247944, -0.0000000000, -0.0000000000, 0.0000000000, 0.0063499399, -0.0000000000, 0.2624861002, 0.0000000000, 0.0000000000, 0.0000000000, -0.0000000000, 0.0960371941, -0.0000000000, -0.0000000000, 0.0000000000, 0.0000000000, 0.0313896947, -0.0000000000, -0.0000000000, 0.0000000000, 0.0000000000, 0.0000000000, -0.0000000000, -0.0000000000, 0.0000000000, 0.0000000000, -0.0000000000, 0.0000000000, -0.0000000000, 0.0000000000, -0.0000000000, -0.0000000000, 0.0000000000, -0.0000000000, 0.0727309212, 0.0000000000, 0.0000000000, 0.2483838946, 0.0000000000, -0.0000000000, 0.0000000000, -0.0000000000, 0.0000000000, -0.0000000000, -0.0000000000, 0.0093309414, 0.0000000000, 0.0000000000, 0.0000000000, 0.0000000000, -0.0000000000, 0.1642750353, -0.0000000000, 0.0000000000, -0.0000000000, 0.0000000000, -0.0839388296, -0.0059441812, 0.0000000000, 0.0013209125, 0.0000000000, -0.0054655285, 0.0325384140, -0.0000000000, -0.0000000000, -0.0000000000, 0.0000000000, -0.0000000000, 0.4174466431, 0.0000000000, 0.0000000000, 0.0000000000, -0.0118301753, -0.0000000000, 0.0000000000, -0.0307863280, -0.0000000000, -0.0000000000, -0.0008793481, 0.0000000000, 0.0000000000, -0.0000000000, -0.0000000000, 0.3001696765, 0.0000000000, -0.7349108458, 0.0007711402, 0.0000000000, 0.0000000000, -0.0000000000, -0.0024599629, 0.0000000000, 0.0000000000, 0.0000000000, -0.3700789213, -0.2721325457, -0.0361806713, -0.2766582668, 0.0000000000, -0.0000000000, 0.0000000000, 0.0000000000, 0.0000000000, 0.0000000000, 0.0034132707, 0.0000000000, 0.0000000000, -0.0000000000, 0.0000000000, 0.0000000000, -0.0000000000, 0.0000000000, 0.0000000000, 0.0000000000, 0.0000000000, -0.0000000000, -0.0000000000, -0.0000000000, 0.0000000000, 0.0000000000, -0.0000000000, 0.0000000000, -0.0000000000, 0.0000000000, 0.0000000000, -0.0000000000, -0.0000000000, 0.0000000000, -0.0000000000, -0.0000000000, -0.0000000000, -0.0000000000, -0.0000000000, 0.0000000000, -0.0000000000, 0.0000000000, -0.0000000000, -0.0000000000, -0.0000000000, -0.0000000000, -0.2262130976, -0.6985201836, -0.4468877017, 0.0000000000, 0.0000000000, -0.0000000000, 0.4125167429, 0.0000000000, 0.0000000000, 0.4636895955, -0.0000000000, -0.2310622334, 0.5889582634, 0.0000000000, -0.0000000000, 0.0000000000, 0.0000000000, 0.0000000000, -0.0000000000, -0.0000000000, -0.0000000000, -0.1599708647, 0.0000000000, -0.0000000000, 0.0000000000, 0.5318722129, 0.0000000000, 0.2485899031, -0.6243945956, -0.0000000000, 0.0000000000, -0.6396207213, -0.0000000000, -0.0000000000, 0.0000000000, 0.0000000000, 0.3279500902, -0.0000000000, -0.0000000000, -0.0019858778, 0.0000000000, 0.0000000000, -0.0000000000, -0.0000000000, 0.0000000000, 0.0000000000, -0.0000000000, -0.3050342202, 0.0000000000, -0.0000000000, -0.0000000000, -0.0000000000, -0.7627200484, -0.0000000000, 0.0000000000, -0.3892449737, 0.0000000000, 0.0000000000, 0.1675569713, 0.0000000000, -0.0000000000, -0.0000000000, 0.0480047725, -0.0000000000, -0.0000000000, 0.0136666242, 0.3008982837, -0.0979766697, 0.0000000000, -0.0007624995, -0.0000000000, 0.0000000000, -0.0782062560, -0.2578081787, -0.0000000000, 0.0000000000, 0.0000000000, 0.3127335906, -0.0010175131, 0.0000000000, 0.0000000000, 0.0000000000, -0.0000000000, -0.0000000000, -0.0000000000, -0.0000000000, 0.0000000000, -0.0000000000, 0.0000000000, -0.1896023452, -0.1344348788, -0.2618736029, 0.4033933580, 0.0000000000, 0.0000000000, -0.0000000000, -0.0000000000, 0.0000000000, 0.0000000000, 0.0000000000, 0.0000000000, -0.0000000000, 0.0000000000, 0.0000000000, 0.0000000000, 0.0000000000, -0.0000000000, -0.0000000000, 0.0000000000, -0.0000000000, 0.0000000000, 0.0000000000, -0.0000000000, 0.0000000000, 0.0000000000, -0.0000000000, -0.0000000000, -0.0000000000, -0.0000000000, 0.0000000000, 0.0000000000, -0.0000000000, 0.0000000000, -0.0000000000, 0.0422060080, -0.0000000000, 0.0000000000, 0.0000000000, -0.0000000000, -0.0000000000, -0.0974366292, 0.0000000000, 0.0000000000, -0.0000000000, 0.0000000000, 0.0000000000, 0.0000000000, 0.0000000000, -0.0000000000, -0.0000000000, 0.0000000000, 0.0000000000, -0.0000000000, 0.0000000000, -0.0000000000, 0.0000000000, -0.0524082296, -0.0000000000, 0.0000000000, -0.0519844890, -0.0000000000, 0.0000000000, 0.0000000000, -0.0000000000, 0.1567751169, 0.0000000000, 0.1751974523, -0.0000000000, -0.0000000000, 0.1459811181, -0.0000000000, -0.0000000000, 0.0000000000, 0.0000000000, 0.0000000000, -0.0000000000, -0.0000000000, 0.0479048118, -0.0000000000, -0.2242577970, -0.0019119109, 0.0000000000, 0.0000000000, 0.0000000000, -0.0000000000, 0.0000000000, 0.0000000000, -0.0578617826, 0.0000000000, -0.3625187874, -0.0007959014, -0.2122331113, 0.0000000000, 0.0616071336, 0.0000000000, -0.0024309815, 0.0000000000, 0.0000000000, 0.1623742729, 0.0000000000, 0.0000000000, -0.0000000000, -0.0000000000, 0.0003269475, 0.0000000000, 0.0000000000, 0.0000000000, 0.0142437704, -0.0000000000, 0.0000000000, -0.0000000000, 0.0000000000, -0.1921600103, 0.0000000000, 0.0000000000, 0.0000000000, -0.0000000000, -0.0000000000, 0.0000000000, -0.0000000000, 0.0000000000, -0.0000000000, -0.0549420007, -0.0000000000, 0.0000000000, -0.0000000000, 0.6750800610, 0.0000000000, 0.0119531993, 0.0000000000, -0.0430949070, 0.0000000000, 0.0000000000, -0.0000000000, -0.0000000000, 0.0000000000, 0.0000000000, 0.0000000000, 0.0000000000, -0.0000000000, 0.0793978795, 0.0000000000, 0.2926438153, 0.4977927804, 0.6295969486, 0.2884523273, -0.0000000000, -0.2124406248, -0.0000000000, 0.0854015127, 0.1547246277, 0.1180430278, 0.0000000000, 0.5938925743, -0.0835361332, 0.3626693487, 0.0000000000, 0.0681864098, 0.0000000000, 0.5454551578, 0.0000000000, -0.0000000000, -0.7104675174, -0.0000000000, -0.0770139471, -0.0325860865, -0.0000000000, 0.0000000000, 0.4256996810, 0.0000000000, 0.0000000000, -0.0000000000, -0.0000000000, 0.0000000000, -0.0000000000, 0.0004558099, -0.0000000000, -0.0000000000, 0.0000000000, 0.0000000000, -0.0000000000, 0.0000000000, 0.0000000000, -0.0000000000, -0.0000000000, -0.0000000000, 0.0000000000, -0.0000000000, 0.0000000000, -0.0000000000, 0.2763442695, 0.0000000000, 0.0000000000, 0.0000000000, -0.0000000000, 0.0000000000, 0.0000000000, -0.0000000000, -0.0000000000, -0.0000000000, 0.0000000000, 0.2250212580, 0.0000000000, -0.0000000000, 0.0000000000, 0.0000000000, 0.0000000000, 0.0000000000, -0.0000000000, -0.0000000000, 0.0000000000, 0.0000000000, 0.1337732822, 0.0000000000, -0.0000000000, -0.0000000000, 0.1036560610, -0.0000000000, 0.1313846409, -0.0000000000, -0.0492470078, 0.0000000000, -0.1661312580, -0.0000000000, 0.2178631276, -0.0000000000, 0.0000000000, 0.0000000000, -0.0000000000, 0.1045612171, -0.0000000000, -0.0000000000, 0.0000000000, 0.2464160174, -0.0000000000, -0.0000000000, 0.0000000000, 0.0000000000, 0.0000000000, 0.0000000000, -0.0000000000, 0.6815982461, 0.0000000000, -0.0275773797, 0.3636069596, 0.0000000000, 0.2256087810, -0.0000000000, 0.0000000000, -0.1094891354, 0.0000000000, -0.1298661828, 0.2224138230, 0.0000000000, -0.0220872797, -0.0000000000, -0.0000000000, 0.3189510107, 0.0000000000, -0.0000000000, -0.0000000000, -0.0000000000, -0.0000000000, -0.0000000000, 0.1565391272, 0.0000000000, 0.0000000000, 0.0000000000, -0.0000000000, 0.0000000000, -0.0000000000, 0.0000000000, -0.1724455208, 0.3615521193, 0.0000000000, 0.0000000000, 0.0000000000, -0.0000000000, 0.0000000000, -0.0000000000, -0.0000000000, -0.0000000000, -0.0000000000, -0.0000000000, 0.0000000000, -0.0000000000, 0.0000000000, -0.0217253435, 0.0000000000, 0.0000000000, -0.0000000000, 0.0000000000, 0.0000000000, 0.4558493197};

#endif

#endif
