//Numpy array shape [64]
//Min -2.843750000000
//Max 0.765625000000
//Number of zeros 12

#ifndef B3_H_
#define B3_H_

#ifndef __SYNTHESIS__
h_dense_24_bias_t b3[64];
#else
h_dense_24_bias_t b3[64] = {-1.93750000000000, -1.75000000000000, 0.19531250000000, 0.00000000000000, -0.03125000000000, -0.68750000000000, 0.00000000000000, 0.00000000000000, -1.87500000000000, -0.15625000000000, -0.31250000000000, 0.03125000000000, -1.62500000000000, 0.31250000000000, 0.00000000000000, -1.62500000000000, -1.43750000000000, -1.46875000000000, -0.62500000000000, -0.75000000000000, -0.26562500000000, 0.51562500000000, -0.81250000000000, -0.48437500000000, -0.31250000000000, 0.00000000000000, -0.71875000000000, 0.60937500000000, 0.09375000000000, -1.25000000000000, 0.65625000000000, -0.87500000000000, -0.43750000000000, -1.06250000000000, -1.43750000000000, 0.00000000000000, -1.56250000000000, 0.46875000000000, -1.37500000000000, 0.00000000000000, 0.00000000000000, 0.76562500000000, 0.00000000000000, -0.93750000000000, -0.62500000000000, -2.84375000000000, 0.00000000000000, -0.81250000000000, -0.71875000000000, -1.06250000000000, -0.56250000000000, -1.53125000000000, -0.06250000000000, 0.00000000000000, -0.37500000000000, 0.00000000000000, -1.28125000000000, 0.20312500000000, -0.34375000000000, -0.84375000000000, -1.25000000000000, -0.81250000000000, -2.18750000000000, 0.34375000000000};

#endif

#endif
