//Numpy array shape [64]
//Min -1.781250000000
//Max 0.742187500000
//Number of zeros 1

#ifndef B3_H_
#define B3_H_

#ifndef __SYNTHESIS__
h_dense_20_bias_t b3[64];
#else
h_dense_20_bias_t b3[64] = {-1.3750000000000000, -0.2812500000000000, 0.0937500000000000, -0.3906250000000000, -0.2031250000000000, -1.3437500000000000, -0.1093750000000000, -0.1093750000000000, 0.3593750000000000, -0.2656250000000000, 0.1328125000000000, 0.0937500000000000, 0.2148437500000000, -0.3593750000000000, -1.1875000000000000, -0.4687500000000000, -0.3828125000000000, -1.6093750000000000, 0.4218750000000000, -0.5625000000000000, -0.4062500000000000, -1.6875000000000000, -0.2812500000000000, -0.1562500000000000, -0.1406250000000000, 0.1406250000000000, 0.3906250000000000, -1.3125000000000000, -0.3437500000000000, -0.7812500000000000, -0.1562500000000000, -1.4218750000000000, 0.0000000000000000, -1.0937500000000000, -0.2343750000000000, -1.1875000000000000, -0.7187500000000000, -0.4375000000000000, -0.2812500000000000, -0.6562500000000000, -1.2187500000000000, -0.0156250000000000, -0.2031250000000000, 0.7187500000000000, -0.2187500000000000, -0.2187500000000000, 0.3828125000000000, -0.7343750000000000, -0.3906250000000000, -0.1406250000000000, -1.7812500000000000, 0.7421875000000000, -0.5625000000000000, -0.0468750000000000, -0.2968750000000000, -0.6875000000000000, -0.7812500000000000, -0.7968750000000000, -0.8125000000000000, -0.2187500000000000, -0.4062500000000000, -0.6562500000000000, 0.7265625000000000, -0.5468750000000000};

#endif

#endif
