//Numpy array shape [32, 5]
//Min -0.718750000000
//Max 0.578125000000
//Number of zeros 24

#ifndef W18_H_
#define W18_H_

#ifndef __SYNTHESIS__
h_dense_23_weight_t w18[160];
#else
h_dense_23_weight_t w18[160] = {0.0703125, 0.3437500, 0.2187500, -0.5937500, 0.1562500, -0.1562500, 0.0625000, -0.1562500, -0.2968750, -0.3515625, -0.0937500, -0.0625000, 0.1875000, -0.0312500, 0.1562500, 0.1250000, 0.2500000, -0.0312500, -0.4375000, 0.5000000, 0.5625000, 0.2968750, -0.0625000, 0.0312500, 0.1562500, -0.1562500, 0.2343750, 0.2343750, 0.1406250, 0.1718750, 0.0000000, 0.0000000, 0.0000000, 0.0000000, 0.0000000, -0.5000000, -0.0625000, 0.2500000, 0.3750000, 0.0625000, -0.1250000, -0.2500000, 0.0000000, 0.0000000, 0.0000000, 0.0468750, 0.3750000, -0.2656250, 0.3046875, 0.3281250, 0.1250000, 0.1562500, -0.3750000, 0.1250000, 0.0625000, -0.1250000, -0.1875000, 0.2500000, -0.1250000, -0.1875000, -0.1250000, -0.1718750, 0.0625000, 0.0625000, 0.3125000, 0.0000000, 0.0000000, 0.0000000, 0.0000000, 0.0000000, 0.1250000, 0.0000000, 0.1875000, 0.3437500, -0.1250000, 0.1875000, 0.0156250, 0.3125000, -0.0312500, -0.0312500, -0.1562500, 0.0000000, 0.2500000, 0.5625000, 0.0312500, 0.0000000, -0.1250000, 0.1562500, 0.3750000, 0.4062500, -0.0312500, -0.2812500, 0.0000000, -0.1562500, -0.2187500, 0.0000000, 0.0000000, 0.0000000, 0.0000000, 0.0000000, -0.1562500, -0.1562500, 0.2187500, 0.1875000, 0.1875000, -0.2187500, -0.1875000, 0.1875000, -0.0625000, -0.1250000, 0.0546875, 0.1640625, 0.1250000, -0.3125000, -0.7187500, -0.2656250, -0.1562500, -0.0625000, 0.3750000, -0.1250000, 0.5781250, 0.0000000, 0.4218750, -0.1250000, -0.0312500, 0.1875000, 0.0312500, -0.3437500, 0.2343750, 0.0781250, 0.3125000, 0.1562500, 0.3125000, -0.0625000, 0.0000000, 0.3671875, 0.0312500, -0.0468750, -0.1406250, -0.0546875, -0.0156250, -0.2500000, 0.0312500, -0.3437500, -0.5625000, -0.1875000, 0.0625000, -0.1250000, 0.1875000, 0.1250000, 0.0937500, 0.3437500, 0.3125000, 0.3750000, -0.3281250, -0.1250000, -0.4062500, 0.0156250, 0.1875000, 0.4531250};

#endif

#endif
