//Numpy array shape [64, 32]
//Min -4.000000000000
//Max 2.500000000000
//Number of zeros 868

#ifndef W8_H_
#define W8_H_

#ifndef __SYNTHESIS__
h_dense_21_weight_t w8[2048];
#else
h_dense_21_weight_t w8[2048] = {0.000000, 0.000000, 0.000000, 0.000000, 0.000000, 0.000000, 0.000000, 0.000000, 0.000000, 0.000000, -1.000000, -2.000000, 0.500000, 0.000000, 0.000000, -1.000000, -0.250000, 0.000000, -2.000000, 0.000000, -0.500000, -0.250000, 0.000000, -0.500000, 0.500000, 0.000000, 0.000000, 0.000000, 0.000000, 0.250000, 0.000000, 0.000000, 0.000000, 0.062500, -0.250000, 0.250000, 0.500000, -0.250000, -0.250000, 0.000000, 0.000000, 0.000000, 0.000000, 0.000000, 0.000000, 0.000000, 0.000000, -0.250000, 0.000000, 0.250000, -0.250000, 0.000000, 0.000000, -0.343750, -0.250000, -0.125000, 0.000000, 0.000000, 1.000000, 0.000000, -0.750000, 0.000000, 0.000000, -2.000000, 0.000000, 0.125000, -0.500000, 0.312500, 0.000000, 0.500000, 0.000000, -0.187500, 0.000000, 1.000000, -2.000000, -0.500000, 0.250000, -1.000000, 0.000000, -0.500000, 1.000000, -0.625000, 0.000000, 0.000000, -0.250000, 0.500000, 0.250000, 0.375000, 0.000000, 0.000000, -0.375000, 0.000000, -0.125000, 0.375000, 0.187500, -1.000000, 0.000000, 0.125000, 0.000000, 0.000000, -0.125000, 0.250000, 0.000000, 0.000000, 0.125000, -1.000000, 0.000000, 0.250000, 0.000000, 0.000000, 0.000000, -0.750000, 0.000000, -0.750000, 0.125000, 0.000000, 0.500000, -2.000000, -1.125000, -0.062500, -4.000000, 0.000000, 0.031250, 0.000000, -0.062500, 0.125000, 0.000000, 0.000000, 0.500000, -0.062500, 0.312500, 0.000000, -0.125000, -0.125000, 0.375000, -0.750000, 1.000000, -1.000000, -0.250000, 0.500000, -0.750000, 0.500000, 0.000000, 0.437500, -0.250000, -0.156250, -0.250000, 0.000000, 0.000000, -0.250000, 0.000000, 0.281250, 0.000000, 0.000000, -1.000000, 0.000000, 0.000000, 0.000000, 0.000000, -4.000000, -0.500000, -0.500000, -2.000000, -0.312500, 0.000000, -1.000000, 0.000000, -1.500000, 0.500000, 0.000000, 0.000000, 0.000000, -0.500000, 0.000000, 0.000000, 0.000000, 0.000000, 0.000000, -4.000000, 0.000000, 1.250000, 0.000000, -2.000000, 0.125000, 0.000000, 0.000000, 0.500000, 0.000000, 0.000000, 0.125000, -0.500000, -0.500000, 0.000000, -0.750000, 0.750000, -0.250000, 0.375000, 0.250000, -0.125000, 0.500000, 0.750000, 0.000000, 0.250000, 0.000000, 0.250000, 0.000000, 0.000000, 0.250000, 0.000000, -0.500000, -0.500000, 0.000000, 0.000000, 0.062500, 0.250000, 0.125000, 0.000000, 0.000000, -2.000000, 0.000000, 0.000000, -2.000000, -0.500000, -2.000000, -1.000000, 0.000000, 0.125000, 0.000000, -0.250000, 0.000000, 0.250000, 0.000000, 0.000000, 0.000000, 0.000000, 0.500000, -0.500000, 0.000000, 0.000000, 0.500000, 0.500000, 0.000000, 0.000000, 0.000000, 0.000000, 0.437500, -0.500000, -0.687500, 0.500000, 0.000000, 0.000000, 0.000000, -1.000000, -2.000000, 0.000000, -4.000000, -0.500000, 0.125000, 0.000000, 0.125000, 0.062500, -0.875000, 0.250000, 0.500000, -2.000000, 0.000000, 0.250000, 0.375000, -0.500000, -0.125000, 0.000000, -1.062500, 0.750000, 0.000000, 0.000000, 0.000000, 0.000000, 0.328125, -0.500000, -0.359375, -0.031250, 0.000000, 0.000000, 0.000000, -1.000000, 0.000000, -2.000000, 0.000000, 0.000000, 0.031250, -0.250000, 0.125000, -0.250000, 0.500000, -2.000000, 0.312500, -0.125000, 0.500000, 0.000000, 0.187500, 0.312500, -2.000000, 0.000000, -1.000000, -2.000000, 0.125000, -0.312500, 0.000000, -0.125000, -1.000000, -1.375000, -0.375000, -2.000000, 0.000000, 0.187500, 0.000000, -0.312500, 0.218750, -0.250000, 0.000000, 1.500000, -0.500000, 0.500000, -0.500000, 1.000000, 0.500000, -4.000000, -0.500000, 0.000000, 0.000000, 0.750000, 0.000000, 0.000000, 0.750000, 0.000000, -0.500000, -0.750000, 1.000000, -0.250000, 0.000000, 0.000000, -0.500000, 0.000000, 0.875000, 0.500000, 0.000000, -1.250000, 0.000000, 0.000000, -0.500000, -0.125000, 1.000000, 0.250000, -0.125000, 0.750000, 0.125000, 0.312500, 0.250000, -0.125000, 0.250000, 0.000000, -1.000000, 0.500000, 0.500000, 0.125000, 0.000000, 0.000000, 0.062500, 0.000000, 0.000000, -0.500000, 0.000000, 0.250000, 0.187500, 0.250000, 0.125000, -1.000000, 0.000000, -0.250000, 0.000000, 0.375000, -0.750000, 0.250000, -1.000000, 0.500000, 0.750000, 0.250000, 0.250000, -0.375000, 0.968750, 0.250000, -1.000000, 0.250000, -2.000000, -1.250000, -0.250000, 0.125000, 0.250000, 0.000000, 0.500000, -3.000000, 0.250000, 0.750000, 0.000000, -0.500000, -1.250000, 0.250000, 1.750000, -1.500000, 0.000000, 1.500000, 0.000000, 1.000000, 0.500000, 0.750000, -0.500000, 0.250000, 0.125000, 0.000000, 0.250000, 0.250000, 1.125000, -4.000000, -0.187500, -0.250000, -0.500000, -2.000000, 0.187500, 0.000000, -4.000000, 0.000000, -0.250000, 0.000000, 0.000000, 0.062500, 0.000000, -0.125000, -0.750000, -0.500000, 0.750000, 0.000000, 0.000000, 0.125000, 0.000000, 0.250000, 0.312500, 0.375000, 0.000000, 0.000000, -0.500000, -0.375000, -0.500000, 0.875000, -0.250000, -1.000000, 1.000000, 0.000000, -4.000000, 0.500000, 0.000000, 0.250000, 0.000000, 0.000000, 0.000000, 0.000000, 0.000000, 0.000000, 0.000000, 0.000000, 0.000000, 0.000000, 0.000000, 0.000000, 0.000000, 0.000000, 0.000000, 0.000000, 0.000000, 0.000000, 0.000000, -1.000000, 0.250000, 0.500000, 0.000000, 0.125000, 0.250000, 0.000000, 0.000000, -0.250000, 0.000000, 0.000000, 0.000000, 0.250000, -2.000000, 0.000000, -0.500000, -2.000000, 0.000000, 0.250000, 0.000000, 0.250000, 0.000000, 0.000000, -0.250000, 0.000000, 0.000000, 0.250000, 0.000000, 0.000000, 0.375000, 0.500000, 0.000000, -1.000000, 0.000000, -1.750000, -0.500000, -0.125000, 0.375000, 0.000000, -0.125000, -0.750000, -2.000000, -0.250000, -1.000000, 0.000000, 0.500000, 0.000000, -0.250000, 0.000000, 0.000000, 2.250000, 0.000000, 0.000000, -0.125000, 0.000000, 0.187500, 1.000000, 0.000000, 1.000000, 0.000000, 0.000000, 0.000000, 0.500000, 0.000000, 1.000000, 0.000000, 0.000000, -3.000000, 1.000000, 0.000000, 0.000000, -2.000000, 0.000000, 0.000000, 0.000000, 1.000000, 0.000000, 0.000000, 0.000000, 0.000000, 0.000000, 0.000000, -1.000000, 0.000000, 1.000000, 0.000000, 0.000000, 1.000000, 0.000000, 0.000000, -1.000000, 0.000000, -2.000000, -1.000000, -1.000000, -2.000000, -1.000000, 0.375000, 0.250000, 0.250000, -0.250000, 0.000000, -0.500000, 0.500000, 0.000000, 1.000000, -0.250000, 0.250000, 0.125000, 0.250000, 0.000000, 0.250000, -0.250000, 0.500000, -0.500000, 0.000000, -1.000000, 0.625000, 0.500000, -0.437500, 0.000000, 0.000000, -0.250000, 0.000000, 0.250000, 0.125000, -0.500000, -0.500000, -2.000000, 0.250000, 0.000000, -0.250000, 0.500000, 0.125000, 0.000000, -0.250000, -0.500000, 0.000000, 0.000000, -0.500000, 0.125000, 1.000000, 0.000000, 0.000000, 0.000000, 0.000000, 0.000000, 0.000000, 0.000000, -0.250000, -0.250000, 0.250000, 0.000000, 0.000000, 0.750000, 0.000000, 0.250000, 0.500000, 0.250000, -2.000000, -0.500000, 1.000000, 0.000000, -0.187500, 0.750000, 0.000000, 0.250000, 0.000000, -0.250000, 0.000000, 0.000000, 0.250000, -0.125000, -0.250000, 0.000000, 0.125000, 0.000000, 0.250000, -0.250000, 0.000000, -0.500000, 0.062500, 0.000000, 0.062500, 0.000000, 0.000000, -0.250000, 0.000000, 0.500000, -0.250000, 0.250000, 0.500000, 0.000000, -0.500000, 0.250000, 0.000000, 0.250000, 0.000000, -1.500000, 0.000000, 0.500000, 0.000000, 0.000000, 0.000000, -0.500000, -0.500000, 0.000000, 0.000000, -0.250000, -1.000000, -2.000000, 0.000000, 0.000000, 0.000000, -1.000000, -0.500000, 1.500000, 0.000000, 0.000000, 0.000000, 0.000000, -2.000000, -1.000000, 0.000000, 0.000000, -0.125000, 0.000000, -0.500000, 0.000000, -0.250000, 0.250000, 0.250000, 0.000000, 0.000000, 0.000000, 0.000000, -0.250000, 0.250000, 0.000000, -0.250000, 0.500000, 0.125000, -0.250000, 0.000000, 0.000000, 0.000000, 0.500000, 0.000000, -0.500000, 0.000000, 0.000000, 0.000000, 0.000000, 0.000000, -1.000000, 0.000000, 0.000000, 0.625000, -0.500000, 0.375000, -0.625000, 0.000000, 0.250000, 1.000000, 1.250000, -2.000000, -0.625000, 0.500000, -0.125000, -0.250000, 0.000000, 0.500000, 0.250000, 0.250000, -0.125000, 0.000000, 0.500000, 0.375000, 0.000000, -0.312500, -0.500000, 0.000000, 0.000000, 0.000000, 0.500000, -0.500000, -0.500000, -0.500000, -2.000000, -0.125000, 0.500000, 0.250000, 0.500000, 0.000000, -0.500000, 0.250000, -1.000000, -0.500000, 0.500000, 0.000000, 0.000000, 0.000000, 0.000000, 0.500000, -0.500000, -0.250000, 0.000000, 0.000000, 0.000000, 0.250000, 0.375000, 0.750000, 0.000000, 0.000000, 0.750000, 0.000000, 0.375000, 1.000000, 0.500000, -1.000000, -4.000000, 0.500000, 0.000000, 0.750000, -0.250000, -0.500000, 1.000000, 0.500000, -1.000000, 1.000000, -0.500000, -1.000000, 0.000000, -1.250000, 0.000000, -0.500000, 0.500000, 0.000000, 0.500000, 0.000000, 0.000000, 0.312500, -0.250000, -0.250000, 0.250000, 0.000000, -0.500000, 0.000000, -0.750000, 0.000000, -1.000000, -2.000000, -1.500000, 0.250000, 0.125000, -0.500000, -0.625000, 0.250000, 0.875000, 0.750000, 0.250000, -0.500000, 0.000000, -0.125000, 0.812500, 0.125000, 0.000000, 0.750000, 0.250000, 0.250000, 0.000000, 0.000000, 0.000000, 0.875000, 0.625000, -0.500000, -2.500000, 0.000000, -3.000000, 0.000000, -0.125000, -1.500000, -0.125000, 0.500000, -1.000000, 0.000000, 0.000000, -0.875000, 0.500000, 0.000000, 0.000000, -1.000000, 0.000000, 0.000000, 0.000000, 0.000000, 0.000000, 0.000000, 0.000000, 0.000000, 0.000000, 0.000000, 0.000000, 0.000000, 1.000000, 0.000000, -1.000000, 0.000000, 0.000000, 0.000000, 0.000000, 0.000000, -0.500000, 0.000000, -1.000000, 1.000000, 0.000000, 0.750000, -0.500000, 0.000000, 0.000000, 0.187500, 0.250000, 0.125000, 0.000000, 0.500000, 0.250000, 0.500000, -0.250000, 0.000000, 0.000000, 0.125000, -0.250000, -0.500000, -0.500000, 0.000000, 0.000000, -0.125000, 0.250000, 0.687500, 0.000000, 0.000000, 1.000000, 0.000000, 0.000000, 0.750000, -0.125000, -2.000000, 0.000000, -0.125000, -0.500000, 0.250000, 0.250000, 1.000000, -0.500000, 0.000000, 0.000000, 0.000000, 0.000000, 0.000000, 0.000000, 0.000000, 0.000000, 1.000000, 0.250000, 0.250000, 0.000000, 0.000000, 0.000000, 0.375000, 0.500000, -0.500000, 0.250000, 0.000000, 0.000000, 0.000000, 0.000000, 0.000000, 0.000000, 0.000000, 0.000000, -0.250000, 0.250000, 0.000000, 0.000000, -0.437500, 0.500000, 0.000000, 0.000000, 0.000000, 0.000000, -0.500000, -0.250000, 0.125000, 0.000000, 0.000000, -0.250000, -0.375000, 0.000000, 0.000000, 0.000000, 0.250000, -0.375000, 0.000000, 0.000000, 0.000000, -2.000000, 0.000000, 0.250000, 0.000000, 0.500000, 0.000000, -2.000000, -1.000000, 0.000000, -2.000000, 1.000000, 0.000000, -2.000000, 0.000000, -1.000000, 0.000000, 2.500000, 0.500000, 0.000000, 2.000000, 0.000000, 1.000000, 1.000000, 0.500000, 0.500000, 0.000000, 0.000000, 0.500000, 0.000000, -0.625000, 0.000000, 0.000000, 0.000000, 0.000000, 0.500000, 0.000000, 0.000000, 1.000000, 0.000000, 0.000000, 0.000000, 0.000000, 0.000000, 0.000000, 0.000000, 0.000000, 0.000000, 0.000000, 0.000000, 0.000000, 0.000000, 0.000000, 0.000000, 0.000000, 0.000000, 0.000000, 0.000000, 0.000000, 0.000000, 0.000000, 0.000000, 0.000000, 0.000000, 0.000000, 0.000000, 0.000000, 0.000000, 0.000000, 0.000000, 0.000000, 0.000000, -0.750000, -0.500000, -0.500000, 1.000000, 0.250000, -0.500000, -0.250000, 0.250000, 0.000000, 0.750000, 0.000000, 0.250000, 0.500000, 0.000000, 0.000000, 0.250000, 0.500000, 0.500000, 0.000000, 0.000000, 0.000000, 0.250000, 0.000000, 0.000000, 0.000000, -2.000000, 0.000000, 0.000000, 0.000000, -0.250000, 0.000000, -0.500000, -0.062500, -0.187500, 0.000000, 0.500000, 0.250000, -1.250000, -1.000000, -0.500000, 0.000000, 0.250000, -0.250000, 0.000000, 0.500000, 0.000000, -0.500000, 0.000000, 0.250000, 1.500000, 0.000000, 0.000000, 0.000000, 0.000000, 0.156250, 0.250000, 0.000000, 0.000000, 0.000000, 0.500000, 0.000000, -0.500000, 0.000000, 0.000000, 0.125000, -0.250000, -0.250000, -0.125000, 0.500000, 0.750000, 0.000000, 0.500000, 0.000000, 0.000000, 1.000000, -0.125000, 0.000000, 0.000000, 0.500000, 0.375000, 0.500000, -1.000000, 0.000000, -1.000000, 0.125000, 0.000000, -0.125000, 0.000000, 0.000000, -0.250000, 0.000000, 0.625000, -0.250000, 0.000000, 1.000000, 1.500000, 0.375000, 0.000000, 0.000000, 0.125000, -0.500000, 0.000000, -1.000000, 1.500000, 0.000000, -0.250000, 0.750000, -0.500000, -1.000000, 0.000000, 0.500000, 0.000000, 0.000000, -0.750000, 0.000000, 0.000000, -0.375000, 0.500000, -0.062500, 0.500000, 0.000000, -2.000000, 0.000000, 0.000000, 0.000000, 0.000000, 0.000000, 1.000000, -0.187500, 0.250000, 0.000000, 0.125000, 0.000000, 0.000000, 0.500000, 0.000000, 0.000000, 0.125000, 0.000000, -0.500000, 0.000000, 0.000000, 0.250000, -0.187500, 0.000000, 0.000000, 0.000000, 0.000000, -0.250000, 0.000000, 0.250000, 0.500000, 0.000000, 0.000000, 0.000000, 0.000000, 0.000000, 0.500000, 0.000000, 0.000000, -0.625000, 0.500000, 0.250000, -0.750000, -0.125000, 0.250000, 0.000000, 0.625000, 1.000000, 0.000000, 0.125000, 0.062500, 0.125000, 0.000000, 0.250000, 0.000000, 0.250000, -1.500000, 0.000000, 0.500000, 0.000000, 0.625000, -0.125000, 0.000000, 0.000000, 1.000000, 0.000000, 0.250000, 0.250000, 0.500000, 0.000000, 0.000000, 0.062500, 0.500000, -0.250000, 0.375000, 0.000000, 0.000000, 0.250000, 0.125000, 0.000000, 0.250000, -0.250000, 0.375000, 0.375000, 0.000000, 0.500000, -1.000000, 0.250000, 0.500000, 0.000000, 0.000000, 0.000000, 0.375000, -0.250000, 0.500000, 0.000000, -1.000000, 0.000000, 0.437500, -1.000000, 0.500000, 0.000000, 0.000000, 0.000000, -0.125000, 0.000000, 0.000000, 0.000000, -0.750000, 0.000000, 0.000000, 0.000000, -0.500000, 0.500000, 0.000000, -0.500000, 0.000000, 0.000000, 0.250000, 0.000000, -1.000000, 0.000000, 0.000000, -0.500000, -1.000000, 0.500000, 1.000000, 0.000000, 0.000000, 0.000000, 0.000000, 0.000000, 0.000000, 0.000000, 1.000000, 0.000000, 0.500000, -0.500000, 0.500000, 0.187500, -1.500000, -1.500000, 0.500000, 0.000000, 0.250000, 0.375000, -0.125000, -0.250000, 0.000000, 0.000000, 0.000000, 0.250000, -1.500000, 0.000000, 0.500000, -0.750000, 0.250000, 0.875000, 0.000000, 0.000000, -0.250000, 0.000000, 0.250000, 0.000000, 0.250000, 0.500000, 0.000000, 0.000000, 0.000000, -0.500000, -0.500000, -1.000000, 0.000000, -2.000000, 1.000000, 1.000000, -0.500000, -0.500000, -1.000000, -2.000000, 0.000000, -0.500000, 1.000000, -0.250000, -0.500000, 0.000000, 0.000000, 0.500000, 0.000000, -0.250000, 1.000000, 0.000000, -1.000000, 0.000000, -2.000000, -1.000000, -2.000000, 0.000000, 0.000000, -0.437500, 0.250000, 0.500000, -0.312500, 0.250000, 0.062500, 0.000000, 0.500000, -0.250000, 0.250000, 0.000000, 0.187500, 0.625000, 0.000000, 0.375000, -0.125000, 0.062500, -0.250000, 0.000000, -1.000000, 0.203125, 0.562500, 0.250000, -2.000000, 0.000000, -0.500000, 0.000000, 0.500000, -0.125000, 0.562500, -0.500000, 0.000000, 1.000000, 0.125000, -0.500000, 0.375000, -0.250000, 0.000000, -0.750000, -1.500000, 0.000000, 0.000000, -0.875000, 0.250000, 0.000000, 0.000000, 0.000000, 0.000000, 0.500000, 0.250000, 0.000000, 0.000000, 0.375000, -0.375000, 0.000000, -0.500000, 0.000000, -0.375000, 0.000000, 0.500000, 0.000000, -0.250000, 0.000000, 0.000000, 0.250000, 0.000000, -0.250000, -0.125000, 0.000000, 0.000000, -0.500000, -1.000000, -2.000000, 0.000000, -0.500000, 1.000000, -0.500000, 0.000000, 0.000000, 0.000000, 0.250000, 0.000000, 0.000000, 0.000000, 0.250000, -0.500000, -0.500000, 0.500000, 0.000000, -0.250000, 0.000000, 0.000000, 0.250000, 0.500000, -2.000000, -0.250000, 0.250000, -0.125000, 0.250000, 0.218750, -0.812500, -0.093750, -2.500000, -1.000000, 0.000000, 0.187500, 0.250000, -1.750000, -0.250000, 0.000000, 0.187500, -0.500000, -0.093750, -0.187500, 0.000000, 0.000000, -0.625000, -2.000000, 0.515625, 0.125000, 0.000000, 0.000000, 0.000000, -0.500000, -1.000000, 0.000000, 0.000000, 0.000000, 0.000000, 0.250000, 0.000000, 0.000000, 0.000000, 0.250000, 0.000000, 1.000000, 0.000000, -1.000000, -0.500000, 0.000000, -0.500000, 0.000000, 0.000000, -0.750000, -0.500000, 0.500000, 0.000000, 0.000000, -0.750000, -1.000000, 0.750000, 0.500000, 0.000000, 2.000000, 0.000000, 0.500000, 0.000000, 0.000000, 0.000000, 0.000000, 1.000000, -1.250000, 0.250000, 0.000000, 0.250000, -1.500000, -0.250000, -0.500000, -1.000000, 0.000000, -0.500000, -0.125000, 0.500000, 0.000000, -0.250000, -0.500000, 1.000000, 0.750000, 0.000000, 0.250000, -0.375000, -0.250000, 0.125000, 0.000000, 0.000000, 0.125000, 0.000000, -0.125000, -0.500000, 0.500000, 0.000000, 0.500000, 0.750000, 0.000000, -0.250000, 0.750000, -0.125000, 0.000000, -1.000000, 0.500000, 0.000000, 0.000000, 0.250000, 0.000000, 0.000000, 0.000000, 0.000000, 0.250000, 0.250000, -0.500000, 0.000000, 1.000000, -0.375000, 0.250000, 0.250000, 0.000000, 0.000000, 0.625000, 0.000000, 0.375000, -0.125000, 0.250000, 0.500000, 0.000000, 0.500000, -0.250000, -2.000000, 0.125000, 0.000000, -2.000000, 0.000000, 0.000000, 0.000000, -0.500000, 0.000000, 0.000000, -2.000000, 0.000000, -0.500000, 0.250000, 0.125000, -4.000000, 0.000000, 0.000000, 0.125000, 0.000000, -0.625000, 1.000000, 0.000000, -4.000000, 0.000000, 0.000000, 0.000000, 0.000000, 0.000000, -0.500000, -0.375000, 0.250000, -0.312500, -0.750000, -0.156250, 0.625000, 0.750000, -0.125000, 0.000000, -0.250000, -0.250000, 0.375000, 0.375000, 0.000000, 0.500000, 0.500000, -0.875000, 0.750000, 0.000000, -1.000000, 0.750000, 0.750000, -0.500000, -0.500000, 0.000000, 0.000000, 0.000000, 0.500000, 1.000000, -0.750000, -0.500000, 1.000000, -0.500000, -1.000000, 0.125000, 0.000000, 0.250000, -1.000000, 0.000000, 0.000000, 0.000000, 0.000000, 0.000000, -0.125000, -2.000000, 0.000000, 0.000000, -4.000000, 0.000000, 0.000000, 0.000000, 0.500000, -0.500000, -0.500000, 0.250000, 0.000000, 0.000000, 0.000000, 0.000000, 0.000000, 0.125000, 0.000000, 0.000000, 0.000000, -0.125000, 0.500000, -0.750000, 0.250000, 0.250000, -0.625000, -0.500000, -0.500000, 0.000000, 0.250000, -0.500000, -1.000000, 0.500000, 0.000000, 0.000000, -0.500000, 0.312500, -0.125000, 0.000000, 0.000000, -0.500000, 0.500000, 0.750000, -0.250000, 0.000000, -0.500000, 0.000000, 0.500000, 0.000000, 0.500000, 0.000000, 0.000000, 0.250000, 0.250000, -1.125000, -0.500000, -0.500000, -0.500000, 0.500000, -1.000000, 0.000000, 0.250000, 0.250000, 0.000000, 0.500000, 0.000000, -0.500000, 0.750000, -0.250000, -0.250000, 0.000000, -2.000000, 0.500000, 0.500000, -1.000000, 0.000000, 0.000000, 1.000000, 0.000000, -0.500000, -0.500000, -2.000000, 1.000000, -0.500000, -0.250000, 0.000000, -0.375000, 0.125000, -0.250000, 0.000000, -0.250000, -1.000000, 0.000000, -1.000000, -0.500000, -0.250000, 1.000000, 0.000000, -1.500000, 0.000000, 0.000000, 0.000000, 0.000000, 0.000000, -1.000000, -0.250000, 0.250000, 0.000000, 0.000000, -0.250000, 0.000000, -0.125000, 0.250000, 0.250000, -2.000000, -0.250000, 0.250000, 0.250000, 0.187500, 0.000000, -0.125000, -0.250000, 0.500000, 0.625000, -1.000000, -1.000000, 0.062500, 0.062500, 0.000000, 0.000000, -0.250000, -0.500000, 0.750000, 0.812500, 0.000000, -0.750000, 0.437500, 0.187500, -0.375000, 0.000000, 0.000000, -0.750000, 0.000000, -0.312500, -0.875000, -0.187500, 1.000000, 0.000000, 0.250000, 0.000000, -0.500000, -0.250000, -1.000000, 0.000000, 0.000000, 0.000000, 0.000000, 0.000000, 0.000000, 0.000000, -0.500000, 0.000000, -0.250000, 0.875000, -0.125000, 0.000000, 0.000000, 0.000000, 0.500000, 1.000000, -0.875000, 0.500000, 0.000000, 0.000000, 0.000000, -1.000000, 0.000000, 0.000000, 0.000000, 0.000000, 0.250000, 0.000000, -0.250000, 0.500000, -0.250000, 0.000000, 0.250000, 0.000000, -1.000000, 0.000000, 0.500000, 0.375000, -1.000000, 0.000000, 0.000000, -1.000000, -1.000000, 0.250000, 0.000000, 0.000000, -0.500000, 0.000000, -0.500000, 0.000000, 0.000000, 0.000000, 0.000000, 0.000000, -0.500000, 0.000000, -1.000000, 0.000000, -0.750000, 0.000000, 0.250000, 0.250000, -0.500000, 0.500000, 0.500000, 1.000000, 1.000000, -0.500000, 0.250000, 0.250000, -0.500000, 0.000000, 0.000000, 0.000000, -0.250000, -0.750000, 0.000000, -2.000000, 0.250000, 0.500000, -0.125000, -1.000000, 0.000000, -1.000000, 0.000000, -1.000000, -0.500000, 0.000000, -1.000000, 0.000000, 0.000000, 0.000000, -0.250000, 0.000000, 0.500000, -0.500000, 0.000000, -2.000000, 0.000000, 0.000000, 0.000000, 0.000000, -2.000000, 0.000000, 0.000000, 0.000000, -0.500000, -1.000000, 0.000000, 0.000000, -0.250000, -1.000000, 0.125000, 0.750000, 0.000000, 2.000000, 0.000000, -1.000000, 0.250000, -1.000000, 0.000000, 0.000000, -0.500000, 0.500000, 0.000000, -0.500000, 0.000000, 0.750000, -1.000000, 0.000000, 0.000000, 0.000000, 0.000000, 0.500000, 0.000000, 0.000000, 0.500000, 0.250000, -1.000000, 0.000000, 0.000000, 0.000000, 0.125000, 0.000000, 0.000000, 0.500000, 0.000000, 0.000000, 0.000000, 0.000000, 0.000000, 0.000000, 0.000000, 0.000000, 0.000000, -0.125000, -0.500000, 0.218750, -1.250000, 0.156250, -0.750000, -2.000000, -1.000000, 0.406250, 0.625000, -0.875000, 0.281250, 0.000000, -0.250000, 0.375000, 0.062500, -0.218750, 0.000000, 0.000000, 0.500000, -1.000000, -0.062500, -0.031250, -2.000000, -1.000000, 0.000000, -1.625000, 0.000000, -3.000000, 0.500000, 0.000000, -0.125000, 0.000000, 0.125000, 0.500000, 0.250000, 0.000000, 0.000000, 0.500000, -2.000000, 0.000000, 0.000000, 0.500000, -2.000000, 0.000000, 1.000000, 0.000000, -2.000000, 0.500000, 0.000000, 0.750000, -0.500000, 0.000000, 0.000000, 0.000000, 0.000000, 0.500000, 0.000000, 0.250000, 0.000000, 0.500000, -0.500000};

#endif

#endif
